tree
version=v3
num_class=1
num_tree_per_iteration=1
label_index=0
max_feature_idx=382
objective=binary sigmoid:1
feature_names=TransactionID TransactionDT TransactionAmt ProductCD card1 card2 card3 card4 card5 card6 addr1 addr2 dist1 dist2 P_emaildomain R_emaildomain C1 C2 C4 C5 C6 C7 C8 C9 C10 C11 C12 C13 C14 D1 D2 D3 D4 D5 D6 D7 D8 D9 D10 D11 D12 D13 D14 D15 M1 M2 M3 M4 M5 M6 M7 M8 M9 V1 V2 V3 V4 V5 V6 V7 V8 V9 V10 V11 V12 V13 V14 V15 V16 V17 V18 V19 V20 V21 V22 V23 V24 V25 V26 V27 V28 V30 V31 V32 V33 V34 V35 V36 V37 V38 V39 V40 V41 V42 V43 V44 V45 V46 V47 V48 V49 V50 V51 V52 V53 V54 V55 V56 V57 V58 V59 V60 V61 V62 V63 V64 V65 V66 V67 V68 V69 V70 V71 V72 V73 V74 V75 V76 V77 V78 V79 V80 V81 V82 V83 V84 V85 V86 V87 V88 V89 V90 V91 V92 V93 V94 V95 V96 V97 V98 V99 V100 V101 V107 V126 V127 V128 V129 V130 V131 V132 V138 V139 V140 V141 V142 V143 V144 V145 V146 V147 V148 V149 V150 V151 V152 V153 V154 V155 V156 V157 V158 V159 V160 V161 V162 V163 V164 V165 V166 V167 V168 V169 V170 V171 V172 V173 V174 V175 V176 V177 V178 V179 V180 V181 V182 V183 V184 V185 V186 V187 V188 V189 V190 V191 V192 V193 V194 V195 V196 V197 V198 V199 V200 V201 V202 V203 V204 V205 V206 V207 V208 V209 V210 V211 V212 V213 V214 V215 V216 V217 V218 V219 V220 V221 V222 V223 V224 V225 V226 V227 V228 V229 V230 V231 V232 V233 V234 V235 V236 V237 V238 V239 V240 V241 V242 V243 V244 V245 V246 V247 V248 V249 V250 V251 V252 V253 V254 V255 V256 V257 V258 V259 V260 V261 V262 V263 V264 V265 V266 V267 V268 V269 V270 V271 V272 V273 V274 V275 V276 V277 V278 V279 V280 V281 V282 V283 V285 V287 V288 V290 V291 V292 V294 V296 V298 V302 V306 V307 V308 V310 V312 V313 V314 V317 V322 V323 V324 V325 V326 V327 V328 V329 V330 V331 V332 V333 V334 V335 V336 V337 V338 V339 id_01 id_02 id_03 id_04 id_05 id_06 id_07 id_08 id_09 id_10 id_11 id_12 id_13 id_14 id_15 id_16 id_17 id_18 id_19 id_20 id_21 id_22 id_23 id_24 id_25 id_26 id_27 id_28 id_29 id_30 id_31 id_32 id_33 id_34 id_35 id_36 id_37 id_38 DeviceType DeviceInfo
feature_infos=[2987000:3577539] [86400:15811131] [0.27200000000000002:31937.391] [1:5] [1001:18395] [100:600] [100:231] [1:5] [100:237] [1:5] [100:540] [10:102] [0:7068] [0:10237] [1:60] [1:61] [0:4670] [0:5624] [0:2242] [0:335] [0:2242] [0:2244] [0:3319] [0:210] [0:3246] [0:3172] [0:3172] [0:2905] [0:1419] [0:640] [0:640] [0:819] [-53:855] [0:819] [-6:864] [0:843] [0:1707.7916259765625] [0:0.95833301544189442] [0:864] [-53:668] [0:648] [0:847] [0:856] [-53:864] [0:1] [0:1] [0:1] [1:4] [0:1] [0:1] [0:1] [0:1] [0:1] [0:1] [0:7] [0:9] [0:6] [0:6] [0:8] [0:8] [0:6] [0:7] [0:4] [0:4] [0:3] [0:6] [0:1] [0:7] [0:11] [0:14] [0:14] [0:7] [0:11] [0:3] [0:7] [0:12] [0:12] [0:3] [0:9] [0:4] [0:4] [0:9] [0:7] [0:11] [0:3] [0:9] [0:3] [0:5] [0:45] [0:45] [0:14] [0:14] [0:1] [0:8] [0:8] [0:40] [0:40] [0:6] [0:12] [0:5] [0:5] [0:5] [0:6] [0:12] [0:5] [0:6] [0:14] [0:46] [0:4] [0:9] [0:14] [0:14] [0:6] [0:9] [0:7] [0:7] [0:1] [0:5] [0:8] [0:2] [0:5] [0:5] [0:4] [0:9] [0:5] [0:8] [0:4] [0:5] [0:29] [0:30] [0:7] [0:13] [0:13] [0:7] [0:7] [0:7] [0:7] [0:29] [0:29] [0:1] [0:2] [0:5] [0:6] [0:7] [0:7] [0:2] [0:880] [0:1408] [0:976] [0:12] [0:87] [0:28] [0:869] [0:1] [0:94901] [0:146097] [0:103495] [0:12307.5] [0:30250] [0:12500] [0:93736] [0:22] [0:33] [0:33] [0:4] [0:9] [0:869] [0:62] [0:297] [0:24] [0:26] [0:20] [0:20] [1:3389] [1:57] [1:69] [0:18] [0:18] [0:24] [0:24] [0:24] [0:24] [0:43891.9296875] [0:641411.4375] [0:3000] [0:3000] [0:3000] [0:93736] [0:98476] [0:90750] [0:872] [0:964] [0:18] [0:42] [0:58] [0:31] [0:6] [0:6] [0:12] [0:47] [0:861] [0:1235] [0:920] [0:83] [0:23] [0:83] [0:40] [0:13] [0:31] [0:37] [0:216] [0:29] [0:29] [0:39] [0:21] [0:44] [0:36] [0:7] [0:16] [0:37] [0:12] [0:21] [0:42] [0:40] [0:52] [0:94053] [0:139677] [0:102387] [0:12307.5] [0:12307.5] [0:25525] [0:3250] [0:8050] [0:3250] [0:92888] [0:129006] [0:97628] [0:60500] [0:60500] [0:60500] [0:303] [0:392] [0:370] [0:23] [0:259] [0:259] [0:14] [0:144] [0:51] [0:121] [0:238] [0:45] [0:176] [0:65] [0:292] [0:329] [0:324] [0:120] [0:19] [0:45] [0:39] [0:20] [0:20] [0:7] [0:4] [0:18] [0:57] [0:20] [0:199] [0:38] [0:16] [0:36] [0:22] [0:17] [0:17] [0:20] [0:163] [0:60] [0:87] [0:87] [0:40] [0:66] [0:210] [0:8] [0:49] [0:19] [0:52030] [0:70000] [0:52030] [0:12307.5] [0:27000] [0:12550] [0:12307.5] [0:4000] [0:4000] [0:4000] [0:29887] [0:32758] [0:32333] [0:52030] [0:52030] [0:52030] [0:880] [0:975] [0:22] [0:29] [0:68] [0:94] [0:31] [0:10] [1:67] [1:1048] [1:309] [0:1286] [0:93] [0:93] [0:15] [0:94901] [0:145610] [0:103440] [0:30250] [0:12500] [0:4817.47021484375] [0:7519.8701171875] [0:134021] [0:880] [0:1409] [0:976] [0:12] [0:44] [0:18] [0:15] [0:99] [0:54] [0:94901] [0:146203] [0:103495] [0:12307.5] [0:12307.5] [0:12307.5] [0:52030] [0:52030] [0:52030] [-100:0] [1:999074] [-13:7] [-13:0] [-72:50] [-100:0] [-32:51] [-100:0] [-26:25] [-100:0] [90:100] [1:2] [10:64] [-660:720] [1:4] [1:3] [100:229] [10:29] [100:671] [100:660] [101:854] [12:43] [1:4] [11:26] [100:548] [100:216] [1:3] [1:3] [1:3] [1:76] [1:131] [0:32] [1:260] [1:5] [0:1] [0:1] [0:1] [0:1] [1:3] [1:1787]
tree_sizes=17874

Tree=0
num_leaves=192
num_cat=0
split_feature=281 26 291 27 27 211 324 10 26 27 281 281 178 290 224 110 18 138 304 324 133 277 169 30 18 221 26 178 18 137 244 339 27 18 27 122 285 138 240 192 23 178 237 324 10 71 240 303 323 343 291 27 323 290 301 0 324 10 138 145 138 304 343 343 0 30 86 37 18 356 42 18 0 231 29 320 307 110 0 18 0 41 103 26 323 26 0 10 0 27 18 27 27 324 239 0 324 320 239 133 122 0 301 336 352 37 29 241 324 110 148 296 285 345 324 145 321 33 0 250 103 27 29 37 150 71 27 296 375 26 159 0 164 130 188 336 63 343 29 304 71 63 10 303 318 0 0 307 30 29 128 164 27 0 0 42 29 231 29 30 138 345 0 159 10 0 360 30 27 23 30 13 0 133 33 151 324 0 10 37 323 318 10 0 10 89 27 190 33 0 323
split_gain=6812.74 1222.44 835.286 762.435 740.954 612.072 564.153 370.171 336.724 269.02 267.107 263.395 254.66 222.354 170.069 167.379 149.306 135.001 122.78 134.62 123.557 121.912 139.606 119.415 114.046 95.9695 72.7096 71.666 68.4561 65.6231 61.6535 59.6058 59.4863 59.3117 95.9088 57.1123 55.8997 53.7902 53.4386 52.8607 51.0586 50.7077 49.5525 47.7438 57.9564 121.097 47.5385 46.8619 46.7065 46.4965 45.1989 44.6436 52.3271 43.0142 42.3236 44.1198 37.8197 37.6283 35.8219 35.7312 56.7993 34.18 34.0701 81.8917 98.5659 33.9899 32.4135 31.791 30.5387 29.5589 30.8853 28.5567 28.4023 28.1967 28.1187 32.7511 49.7687 25.3442 23.7441 28.0176 22.6409 22.603 22.4669 22.3673 22.0778 22.0616 21.6592 21.7241 26.1794 21.4061 21.1395 42.0389 20.9759 20.7576 20.734 20.6104 20.2697 19.2514 18.2984 18.2091 17.8106 21.1636 16.9533 16.9354 16.671 16.5976 26.9824 16.582 16.5756 16.5602 16.4562 16.3229 16.2765 16.1635 15.634 27.5727 15.2355 14.9591 14.6645 14.1833 13.8031 14.516 13.5283 13.4529 13.3279 12.9712 16.6669 12.6958 12.5761 11.9865 11.6966 18.5448 11.6949 11.5283 12.6827 11.0059 10.7078 10.6846 10.6504 10.5979 10.362 10.2816 10.0036 11.8076 9.80425 9.72524 9.71047 9.69202 9.65351 9.48706 9.47694 9.40545 24.8567 9.40202 9.42844 9.18249 9.04232 10.8562 11.8721 13.726 8.88734 9.05466 8.65498 8.54822 8.40578 8.83903 8.3216 8.32046 19.0098 7.97174 12.1707 7.95955 7.89344 7.84921 14.2898 17.6723 8.64092 7.79303 7.44609 7.29105 7.2316 6.6615 6.63334 6.59359 15.5016 6.5361 6.47921 6.4666 7.18925 6.19587 6.16155
threshold=2.5000000000000004 5.5000000000000009 7.5262498855590829 1.0000000180025095e-35 13.500000000000002 1.5000000000000002 1.0000000180025095e-35 529.50000000000011 13.500000000000002 2.5000000000000004 3.5000000000000004 4.5000000000000009 1.5000000000000002 125.02519989013673 1.5000000000000002 5.5000000000000009 1.5000000000000002 1.5000000000000002 1.0000000180025095e-35 732.42498779296886 1.5000000000000002 2.5000000000000004 4.5000000000000009 3.5000000000000004 2.5000000000000004 1.5000000000000002 2.5000000000000004 2.5000000000000004 4.5000000000000009 1.0000000180025095e-35 1.5000000000000002 19.000000000000004 4.5000000000000009 2.5000000000000004 1.0000000180025095e-35 1.5000000000000002 2.5000000000000004 3.5000000000000004 1.5000000000000002 1.0000000180025095e-35 4.5000000000000009 1.5000000000000002 27.410549163818363 331.64999389648443 122.50000000000001 1.0000000180025095e-35 1.5000000000000002 1.0000000180025095e-35 213.08000183105472 -48.999999999999993 25.006950378417972 6.5000000000000009 332.35000610351568 30.595049858093269 15.510449886322023 3360022.5000000005 761.47500610351574 124.50000000000001 1.5000000000000002 1.0000000180025095e-35 2.5000000000000004 3.5000000000000004 -48.999999999999993 -53.499999999999993 3256710.0000000005 548.50000000000011 1.0000000180025095e-35 0.47916649281978613 1.5000000000000002 -269.99999999999994 413.50000000000006 1.5000000000000002 3110217.0000000005 10.413950443267824 506.50000000000006 780.25000000000011 9.5000000000000018 4.5000000000000009 3110217.0000000005 1.0000000180025095e-35 3268552.5000000005 7.5000000000000009 1.0000000180025095e-35 21.500000000000004 352.03500366210943 1.5000000000000002 3356181.5000000005 251.50000000000003 3462999.0000000005 1.5000000000000002 3.5000000000000004 4.5000000000000009 1.5000000000000002 250.069450378418 1.0000000180025095e-35 3295371.0000000005 218.16674804687503 524.00500488281261 99.225601196289077 1.5000000000000002 1.0000000180025095e-35 3163885.5000000005 17.765600204467777 20.500000000000004 -1.0000000180025095e-35 inf 67.500000000000014 4.5000000000000009 1310.350280761719 1.5000000000000002 6.5000000000000009 14.138350009918215 1.5000000000000002 1.0000000180025095e-35 1680.5000000000002 1.0000000180025095e-35 67.95999908447267 7.5000000000000009 3363909.5000000005 1.0000000180025095e-35 1.5000000000000002 1.5000000000000002 2.5000000000000004 0.10416650027036668 3.5000000000000004 1.0000000180025095e-35 2.5000000000000004 40.042499542236335 61.500000000000007 2.5000000000000004 619.45001220703136 3394228.0000000005 1.0000000180025095e-35 1.0000000180025095e-35 1.0000000180025095e-35 221.50000000000003 1.0000000180025095e-35 -44.499999999999993 6.5000000000000009 3.5000000000000004 1.5000000000000002 1.0000000180025095e-35 220.50000000000003 8.5000000000000018 154.01999664306643 3306626.0000000005 3183335.5000000005 2.5000000000000004 4.5000000000000009 1.5000000000000002 3.5000000000000004 1.0000000180025095e-35 1.5000000000000002 3474515.5000000005 3386540.0000000005 542.50000000000011 31.500000000000004 13.707099914550783 1.0000000180025095e-35 21.500000000000004 1.5000000000000002 1.5000000000000002 3397929.0000000005 319.92500305175787 203.50000000000003 3121980.0000000005 14.000000000000002 119.50000000000001 28.500000000000004 2.5000000000000004 2.5000000000000004 13.500000000000002 3409357.0000000005 1.0000000180025095e-35 6.5000000000000009 3.5000000000000004 53.084800720214851 3291477.0000000005 205.50000000000003 0.64583298563957225 364.47500610351568 141.04299926757815 330.50000000000006 3129538.0000000005 326.00000000000006 1.5000000000000002 7.5000000000000009 1.0000000180025095e-35 5.5000000000000009 3033518.5000000005 92.070549011230483
decision_type=10 2 10 2 2 10 10 8 2 2 10 10 10 10 10 8 2 10 10 10 10 10 8 8 2 10 2 8 2 10 8 10 2 2 2 8 10 10 10 8 2 10 8 10 8 8 10 10 10 8 8 2 10 10 10 2 10 10 10 10 10 10 8 10 2 8 8 10 2 10 8 2 2 10 10 10 10 8 2 2 2 8 8 2 10 2 2 10 2 2 2 2 2 10 10 2 10 10 10 10 10 2 10 10 10 8 10 10 10 8 10 8 10 8 10 8 10 8 2 8 8 2 10 10 10 8 2 10 10 2 10 2 10 8 10 10 8 10 10 10 8 10 10 10 10 2 2 10 8 10 8 10 2 2 2 8 10 8 10 8 10 10 2 10 10 2 10 10 2 2 10 8 2 8 8 10 10 2 10 8 8 10 8 2 10 8 2 8 8 2 10
left_child=1 3 10 5 8 7 14 12 9 123 21 31 16 53 23 17 69 26 28 57 40 22 72 48 71 46 47 -12 37 -17 -18 54 -11 34 -24 58 41 43 42 127 80 59 111 68 45 -45 94 49 89 -9 -30 52 142 -13 55 107 163 129 167 90 62 -22 63 -61 -65 -60 74 -26 132 70 133 103 -2 -69 75 76 84 120 -72 96 147 -62 -50 -10 164 104 97 -88 -89 117 116 -92 155 140 -7 -71 141 108 -27 124 101 -70 -36 109 145 -93 -107 -4 -58 -16 138 -19 -56 -106 115 130 136 -5 137 -119 160 187 -98 -3 125 126 -95 150 -111 -20 -68 -132 148 -1 183 -118 -25 -81 162 -131 -59 -80 -46 169 -121 -51 -84 149 190 -21 -29 -138 -153 154 178 -73 157 158 -102 -160 161 180 -82 -54 -53 -166 -139 168 -6 -144 -171 181 -140 174 175 176 -173 -148 -127 -55 -64 -150 -94 189 -185 -35 -34 188 -122 -135 -8
right_child=2 4 11 6 35 25 18 15 83 32 27 13 -14 -15 24 29 30 38 19 20 61 -23 33 36 67 98 -28 39 50 -31 -32 -33 186 185 102 -37 -38 -39 -40 -41 -42 -43 -44 44 51 -47 -48 -49 82 85 -52 66 56 179 112 -57 86 93 65 60 81 -63 77 64 -66 -67 114 73 100 95 78 92 -74 -75 -76 -77 -78 -79 79 118 110 -83 146 -85 -86 -87 87 88 -90 -91 91 105 182 99 -96 -97 122 -99 -100 -101 156 -103 -104 -105 113 106 -108 -109 -110 128 -112 -113 -114 -115 -116 -117 135 119 -120 144 121 -123 -124 -125 -126 153 -128 -129 -130 139 131 -133 -134 134 -136 -137 151 166 172 -141 -142 -143 143 -145 -146 -147 177 -149 171 -151 -152 152 -154 -155 -156 -157 -158 -159 159 -161 -162 -163 -164 -165 165 -167 -168 -169 -170 170 -172 173 -174 -175 -176 -177 -178 -179 -180 -181 -182 -183 -184 184 -186 -187 -188 -189 -190 -191 -192
leaf_value=-0.019281437125748504 -0.019292035398230087 0.0082993197278911565 -0.010862944162436548 -0.017732283464566928 -0.0097986577181208064 0.008869565217391304 -0.018063028439661798 -0.0019753086419753087 0.0099009900990099011 -0.0034254143646408842 0.0034090909090909089 0.0031446540880503142 0.0064444444444444453 -0.014636871508379888 -0.016801112656467318 -0.0082352941176470594 0.0062068965517241385 -0.0006711409395973154 -0.018660287081339714 -0.016533333333333334 -0.0047619047619047615 0.017969543147208122 0.010654205607476635 -0.019444012619450415 0.0035294117647058825 0.0066666666666666662 0.0033663366336633667 0.010512820512820513 -0.0021276595744680851 0.012195121951219513 -0.012960000000000001 -0.019446366782006921 -0.014108527131782947 0.0086238532110091744 -0.0029787234042553193 -0.0014035087719298245 -0.0047058823529411769 -0.0054545454545454541 -0.016226415094339624 0.0031775700934579439 -0.0027692307692307695 -0.0069767441860465115 -0.0086910994764397911 0.0087850467289719621 -0.018196844477836215 -0.019432624113475176 -0.011942446043165467 -0.017234042553191491 -0.016232050545663412 -0.015659824046920821 -0.016821192052980133 -0.019705882352941177 -0.017427385892116183 0.01968 -0.0077966101694915257 -0.0039195979899497484 -0.013274336283185842 -0.016585838991270613 -0.016507936507936506 -0.019199999999999998 -0.0020560747663551401 0.0097744360902255641 -0.019279924202547635 0.0071999999999999998 -0.019223300970873786 -0.0018749999999999999 -0.018418434145064153 -0.0017599999999999998 -0.017000000000000001 -0.015967741935483871 -0.019100414282896036 -0.011397849462365592 -0.0060526315789473685 -0.014545454545454545 -0.0082222222222222228 -0.019339933993399342 -0.0017543859649122807 -0.011746031746031747 -0.017985464745633048 -0.0090598290598290603 -0.0054545454545454541 -0.015247524752475249 -0.015604395604395605 0.018000000000000002 -0.0085714285714285719 -0.005185185185185185 -0.012285714285714287 0.0041322314049586778 -0.009285714285714286 -0.018703725060546652 -0.0071999999999999998 -0.019242798353909466 -0.011879699248120301 -0.0040000000000000001 -0.0033333333333333331 -0.0068292682926829277 -0.016415094339622644 -0.015818815331010455 0.017452229299363058 -0.0082142857142857139 -0.017277486910994764 -0.0072081218274111679 -0.013454545454545455 -0.019153259949195599 -0.012507552870090635 -0.0056000000000000008 -0.019666666666666666 -0.018588235294117648 -0.0022641509433962265 -0.0059047619047619048 -0.0035999999999999999 0.0083720930232558145 0.0021917808219178081 -0.0042962962962962963 -0.019755911517925249 -0.010505050505050507 -0.019177930269633325 -0.0085245901639344254 -0.017379912663755461 -0.016496018202502846 -0.0073267326732673263 -0.018424242424242426 -0.010270270270270269 0.017500000000000002 -0.018364312267657994 -0.011041666666666668 -0.014375000000000001 0.018441558441558443 -0.015478260869565217 -0.01048951048951049 -0.0088721804511278195 -0.02 -0.011926605504587157 -0.010814814814814815 -0.016996587030716725 -0.013432835820895524 -0.019713068038764197 -0.015905707196029777 -0.019039999999999998 -0.018857142857142857 -0.013430353430353431 -0.01963616907437132 -0.016872509960159363 -0.011295336787564766 -0.010551181102362204 -0.012718204488778057 -0.0052000000000000006 -0.018363171355498722 -0.017687861271676299 -0.0086274509803921581 0.0184 -0.009180327868852459 -0.019142857142857145 -0.018375634517766498 -0.0091139240506329117 -0.0040000000000000001 -0.019513677811550154 -0.018303030303030304 -0.014857142857142859 -0.0054867256637168137 -0.017396883593033916 -0.013821138211382113 -0.012662721893491125 -0.011946308724832216 -0.011515151515151516 -0.016794171220400729 -0.012612137203166228 -0.02 -0.017511111111111113 -0.0077227722772277236 -0.016645161290322581 -0.012352941176470589 -0.011711711711711712 -0.018878598247809762 -0.018601066982809722 -0.010059171597633136 -0.017770193401592721 -0.011598746081504702 -0.015570469798657718 0.013406593406593406 -0.014380165289256199 -0.011320754716981131 -0.017206349206349208 -0.0068544600938967139 -0.016399999999999998 0.014883720930232559 -0.019808612440191387 -0.017281553398058251 -0.014766355140186916 -0.01653179190751445 -0.015848595848595846
leaf_weight=41.75 28.25 36.75 49.25 635 37.25 28.75 325.25 40.5 50.5 45.25 44 39.75 45 44.75 359.5 25.5 36.25 37.25 574.75 37.5 31.5 49.25 53.5 21871 29.75 26.25 25.25 39 47 41 31.25 72.25 32.25 27.25 35.25 28.5 25.5 35.75 26.5 26.75 48.75 32.25 47.75 26.75 332.75 35.25 34.75 282 435.25 255.75 37.75 68 120.5 31.25 29.5 49.75 28.25 773.25 31.5 125 26.75 33.25 7124.25 31.25 25.75 32 954.75 31.25 40 62 1267.25 46.5 38 38.5 45 227.25 28.5 47.25 1960.75 29.25 27.5 25.25 45.5 105 38.5 33.75 35 30.25 28 2167.75 37.5 303.75 33.25 30 27 41 159 71.75 39.25 56 47.75 49.25 27.5 295.25 82.75 25 30 63.75 26.5 26.25 25 43 36.5 33.75 655.5 49.5 7213.5 30.5 458 219.75 25.25 165 46.25 28 67.25 48 32 346.5 28.75 35.75 33.25 27.25 27.25 33.75 73.25 33.5 54612.25 403 31.25 26.25 120.25 467.25 502 48.25 31.75 200.5 25 97.75 43.25 25.5 25 30.5 140 49.25 39.5 26.25 82.25 82.5 35 28.25 272.75 30.75 42.25 37.25 41.25 137.25 94.75 86 225 25.25 38.75 34 27.75 3995 843.5 42.25 219.75 79.75 149 45.5 30.25 26.5 78.75 53.25 25 43 52.25 25.75 26.75 43.25 204.75
leaf_count=167 113 147 197 2540 149 115 1301 162 202 181 176 159 180 179 1438 102 145 149 2299 150 126 197 214 87484 119 105 101 156 188 164 125 289 129 109 141 114 102 143 106 107 195 129 191 107 1331 141 139 1128 1741 1023 151 272 482 125 118 199 113 3093 126 500 107 133 28497 125 103 128 3819 125 160 248 5069 186 152 154 180 909 114 189 7843 117 110 101 182 420 154 135 140 121 112 8671 150 1215 133 120 108 164 636 287 157 224 191 197 110 1181 331 100 120 255 106 105 100 172 146 135 2622 198 28854 122 1832 879 101 660 185 112 269 192 128 1386 115 143 133 109 109 135 293 134 218449 1612 125 105 481 1869 2008 193 127 802 100 391 173 102 100 122 560 197 158 105 329 330 140 113 1091 123 169 149 165 549 379 344 900 101 155 136 111 15980 3374 169 879 319 596 182 121 106 315 213 100 172 209 103 107 173 819
internal_value=0 -1.88553 0.465676 -1.89397 -0.645998 -1.56658 -1.91403 -1.61323 0.44 -0.437018 1.0948 -0.600324 -1.72446 0.431008 -1.93968 -1.10487 -1.74447 -1.19729 -1.71291 -1.51137 -1.00234 0.357616 0.0771513 -1.94394 -1.52817 0.391026 -1.3377 1.5574 -1.76216 0.43609 -0.266667 -1.15282 -1.26782 0.520107 0.0817204 -1.50937 -1.95097 -1.76986 -0.330097 1.67982 -1.22918 -1.95138 -0.0625 -1.77432 -1.6845 -0.725806 -0.276243 -1.38321 -1.76705 -1.23493 -0.867257 -1.70087 -1.55455 1.1588 -0.902732 -1.17665 -1.23974 -1.62024 -1.60413 -1.95182 -1.88787 0.27027 -1.8947 -1.46703 -0.473684 -0.913386 -1.78491 -0.512563 -1.82845 -1.76344 -1.77404 -1.64114 -1.16981 -0.88172 -1.58173 -1.64494 -1.43541 -1.90475 -1.79224 -1.75098 -1.37679 -0.846154 -1.50811 1.53698 -1.5614 -1.3042 -0.971559 -0.605898 -0.23176 -1.81619 -1.95788 -1.72744 -1.29093 -1.52657 0.295964 -1.23301 -1.8048 -1.24111 1.31298 -1.35669 -1.54795 -1.15966 -0.756972 -1.7323 -1.3505 -1.83275 -1.32727 -1.52212 -0.794521 -1.60193 -1.10244 0.417445 -0.227273 -1.01288 -1.85409 -1.77929 -1.95896 -1.68811 -1.60711 -1.49645 -1.90923 -1.67456 -1.50305 1.2278 -1.42892 -1.35011 -0.935484 1.76857 -1.09091 -1.82097 -1.81482 -1.38843 -1.84622 -1.44496 -1.35667 -1.91514 -1.96311 -1.49336 -1.2466 -1.40323 -1.61612 -1.83031 -1.68004 -1.6044 -1.57455 -1.43671 -1.17471 -1.63919 -1.84933 -1.33333 1.35938 -1.97057 -1.73607 -1.44007 -1.35729 -0.872852 -1.67362 -1.55556 -1.35135 -1.06719 -1.91687 -1.92359 -0.982079 -1.61331 -1.6714 -1.55742 -1.52788 -1.73008 -1.64156 -1.64488 -1.3125 -1.86242 -1.55932 -1.86698 -1.79377 -1.60473 -1.70443 -1.00716 -1.4467 1.59609 -1.92592 -1.52688 -1.5625 -1.19485 -0.990415 1.24555 -1.76331 -1.31833 -1.11538 -1.4026 -1.72075
internal_weight=0 116862 1245.5 116072 790.25 6702.5 109370 6546.5 350 194.5 783.25 462.25 5371.25 161.25 97001 1175.25 5326.25 1108.75 12368.8 2429.25 428 302 252.75 96007 994 156 954.25 481.25 9939.5 66.5 67.5 301 129.75 186.5 116.25 440.25 92336.8 9854.75 154.5 437.25 363.25 92311.2 128 9819 3692.5 62 90.5 929 3670.25 647 84.75 3630.5 1324.5 116.5 228.75 162.75 377.5 2001.25 411.75 92279 7982 64.75 7930 182 57 63.5 2306 99.5 6126.5 5258.75 5155.75 894.5 66.25 69.75 585.75 540.75 313.5 7748 4885.5 3618.25 314.5 52 585.5 155.5 285 606.5 219.75 93.25 58.25 3084.75 84297 396.25 184.75 1364.5 55.75 103 2633.25 126.5 65.5 471 365 89.25 62.75 709.75 572.75 358.75 55 113 54.75 414.5 153.75 80.25 66 116.5 1720.25 1064.75 83900.8 917 985 282 7700.75 242.75 205.25 64.75 415 347.75 62 410.5 55 636.75 1015.25 60.5 5761.5 270.25 228.5 7247 76653.8 527 128.75 62 893.5 2428 947 614.25 251.5 456.25 150.25 160.75 5734.25 63 64 54782.8 170.5 285.75 236.5 72.75 275.75 193.5 111 63.25 7458 7185.25 69.75 157.75 246.5 178.5 497.75 348.25 262.25 566 64 5204.25 59 5134.5 1139.5 296 253.75 104.75 197 76.75 7154.5 69.75 112 155.25 78.25 70.25 84.5 77.75 52 77 530
internal_count=472432 467450 4982 464289 3161 26810 437479 26186 1400 778 3133 1849 21485 645 388004 4701 21305 4435 49475 9717 1712 1208 1011 384028 3976 624 3817 1925 39758 266 270 1204 519 746 465 1761 369347 39419 618 1749 1453 369245 512 39276 14770 248 362 3716 14681 2588 339 14522 5298 466 915 651 1510 8005 1647 369116 31928 259 31720 728 228 254 9224 398 24506 21035 20623 3578 265 279 2343 2163 1254 30992 19542 14473 1258 208 2342 622 1140 2426 879 373 233 12339 337188 1585 739 5458 223 412 10533 506 262 1884 1460 357 251 2839 2291 1435 220 452 219 1658 615 321 264 466 6881 4259 335603 3668 3940 1128 30803 971 821 259 1660 1391 248 1642 220 2547 4061 242 23046 1081 914 28988 306615 2108 515 248 3574 9712 3788 2457 1006 1825 601 643 22937 252 256 219131 682 1143 946 291 1103 774 444 253 29832 28741 279 631 986 714 1991 1393 1049 2264 256 20817 236 20538 4558 1184 1015 419 788 307 28618 279 448 621 313 281 338 311 208 308 2120
shrinkage=0.01


end of trees

feature importances:
TransactionID=21
C13=14
addr1=9
V317=9
C4=8
D1=7
C12=6
D2=6
V87=5
V314=5
D9=4
id_01=4
D5=3
V19=3
V59=3
V82=3
V155=3
V258=3
V281=3
C9=2
D14=2
V11=2
V52=2
V71=2
V94=2
V131=2
V141=2
V208=2
V216=2
V217=2
V262=2
V267=2
V268=2
V273=2
V278=2
V280=2
V285=2
V307=2
V310=2
V333=2
id_03=2
dist2=1
D13=1
V35=1
V38=1
V77=1
V79=1
V86=1
V97=1
V99=1
V100=1
V146=1
V165=1
V167=1
V169=1
V188=1
V198=1
V201=1
V214=1
V218=1
V221=1
V227=1
V254=1
V312=1
V336=1
id_10=1
id_14=1
id_18=1
id_33=1

parameters:
[boosting: gbdt]
[objective: binary]
[metric: auc]
[tree_learner: serial]
[device_type: cpu]
[data: ]
[valid: ]
[num_iterations: 100]
[learning_rate: 0.01]
[num_leaves: 192]
[num_threads: 0]
[max_depth: -1]
[min_data_in_leaf: 100]
[min_sum_hessian_in_leaf: 0.001]
[bagging_fraction: 0.8]
[pos_bagging_fraction: 1]
[neg_bagging_fraction: 1]
[bagging_freq: 1]
[bagging_seed: 11]
[feature_fraction: 0.3]
[feature_fraction_bynode: 1]
[feature_fraction_seed: 2]
[early_stopping_round: 0]
[first_metric_only: 0]
[max_delta_step: 0]
[lambda_l1: 0]
[lambda_l2: 0]
[min_gain_to_split: 0]
[drop_rate: 0.1]
[max_drop: 50]
[skip_drop: 0.5]
[xgboost_dart_mode: 0]
[uniform_drop: 0]
[drop_seed: 4]
[top_rate: 0.2]
[other_rate: 0.1]
[min_data_per_group: 100]
[max_cat_threshold: 32]
[cat_l2: 10]
[cat_smooth: 10]
[max_cat_to_onehot: 4]
[top_k: 20]
[monotone_constraints: ]
[feature_contri: ]
[forcedsplits_filename: ]
[forcedbins_filename: ]
[refit_decay_rate: 0.9]
[cegb_tradeoff: 1]
[cegb_penalty_split: 0]
[cegb_penalty_feature_lazy: ]
[cegb_penalty_feature_coupled: ]
[verbosity: -1]
[max_bin: 155]
[max_bin_by_feature: ]
[min_data_in_bin: 3]
[bin_construct_sample_cnt: 200000]
[histogram_pool_size: -1]
[data_random_seed: 1]
[output_model: LightGBM_model.txt]
[snapshot_freq: -1]
[input_model: ]
[output_result: LightGBM_predict_result.txt]
[initscore_filename: ]
[valid_data_initscores: ]
[pre_partition: 0]
[enable_bundle: 1]
[max_conflict_rate: 0]
[is_enable_sparse: 1]
[sparse_threshold: 0.8]
[use_missing: 1]
[zero_as_missing: 0]
[two_round: 0]
[save_binary: 0]
[header: 0]
[label_column: ]
[weight_column: ]
[group_column: ]
[ignore_column: ]
[categorical_feature: ]
[predict_raw_score: 0]
[predict_leaf_index: 0]
[predict_contrib: 0]
[num_iteration_predict: -1]
[pred_early_stop: 0]
[pred_early_stop_freq: 10]
[pred_early_stop_margin: 10]
[convert_model_language: ]
[convert_model: gbdt_prediction.cpp]
[num_class: 1]
[is_unbalance: 0]
[scale_pos_weight: 1]
[sigmoid: 1]
[boost_from_average: 0]
[reg_sqrt: 0]
[alpha: 0.9]
[fair_c: 1]
[poisson_max_delta_step: 0.7]
[tweedie_variance_power: 1.5]
[max_position: 20]
[lambdamart_norm: 1]
[label_gain: ]
[metric_freq: 1]
[is_provide_training_metric: 0]
[eval_at: ]
[multi_error_top_k: 1]
[num_machines: 1]
[local_listen_port: 12400]
[time_out: 120]
[machine_list_filename: ]
[machines: ]
[gpu_platform_id: -1]
[gpu_device_id: -1]
[gpu_use_dp: 0]

end of parameters
